digraph Tree {
node [shape=box, fontname="helvetica"] ;
edge [fontname="helvetica"] ;
0 [label="rm <= 6.797\nsquared_error = 87.925\nsamples = 347\nvalue = 23.29"] ;
1 [label="lstat <= 15.0\nsquared_error = 35.595\nsamples = 276\nvalue = 19.842"] ;
0 -> 1 [labeldistance=2.5, labelangle=45, headlabel="True"] ;
2 [label="dis <= 1.434\nsquared_error = 25.902\nsamples = 174\nvalue = 22.782"] ;
1 -> 2 ;
3 [label="lstat <= 10.83\nsquared_error = 91.577\nsamples = 4\nvalue = 44.475"] ;
2 -> 3 ;
4 [label="squared_error = 0.0\nsamples = 3\nvalue = 50.0"] ;
3 -> 4 ;
5 [label="squared_error = -0.0\nsamples = 1\nvalue = 27.9"] ;
3 -> 5 ;
6 [label="rm <= 6.544\nsquared_error = 13.024\nsamples = 170\nvalue = 22.271"] ;
2 -> 6 ;
7 [label="lstat <= 7.57\nsquared_error = 9.33\nsamples = 143\nvalue = 21.451"] ;
6 -> 7 ;
8 [label="squared_error = 3.521\nsamples = 29\nvalue = 23.969"] ;
7 -> 8 ;
9 [label="tax <= 208.0\nsquared_error = 8.785\nsamples = 114\nvalue = 20.811"] ;
7 -> 9 ;
10 [label="age <= 69.25\nsquared_error = 31.135\nsamples = 6\nvalue = 25.983"] ;
9 -> 10 ;
11 [label="squared_error = 10.89\nsamples = 2\nvalue = 32.9"] ;
10 -> 11 ;
12 [label="squared_error = 5.377\nsamples = 4\nvalue = 22.525"] ;
10 -> 12 ;
13 [label="squared_error = 5.974\nsamples = 108\nvalue = 20.523"] ;
9 -> 13 ;
14 [label="squared_error = 10.155\nsamples = 27\nvalue = 26.615"] ;
6 -> 14 ;
15 [label="crim <= 0.654\nsquared_error = 12.232\nsamples = 102\nvalue = 14.826"] ;
1 -> 15 ;
16 [label="b <= 344.48\nsquared_error = 13.109\nsamples = 30\nvalue = 17.637"] ;
15 -> 16 ;
17 [label="squared_error = 0.303\nsamples = 2\nvalue = 7.55"] ;
16 -> 17 ;
18 [label="squared_error = 6.237\nsamples = 28\nvalue = 18.357"] ;
16 -> 18 ;
19 [label="crim <= 11.704\nsquared_error = 7.205\nsamples = 72\nvalue = 13.656"] ;
15 -> 19 ;
20 [label="squared_error = 4.175\nsamples = 55\nvalue = 14.36"] ;
19 -> 20 ;
21 [label="squared_error = 10.208\nsamples = 17\nvalue = 11.376"] ;
19 -> 21 ;
22 [label="rm <= 7.437\nsquared_error = 65.411\nsamples = 71\nvalue = 36.696"] ;
0 -> 22 [labeldistance=2.5, labelangle=-45, headlabel="False"] ;
23 [label="dis <= 1.259\nsquared_error = 24.876\nsamples = 46\nvalue = 31.902"] ;
22 -> 23 ;
24 [label="squared_error = 0.0\nsamples = 1\nvalue = 50.0"] ;
23 -> 24 ;
25 [label="ptratio <= 19.45\nsquared_error = 17.989\nsamples = 45\nvalue = 31.5"] ;
23 -> 25 ;
26 [label="squared_error = 8.995\nsamples = 39\nvalue = 32.556"] ;
25 -> 26 ;
27 [label="squared_error = 22.042\nsamples = 6\nvalue = 24.633"] ;
25 -> 27 ;
28 [label="ptratio <= 15.4\nsquared_error = 19.917\nsamples = 25\nvalue = 45.516"] ;
22 -> 28 ;
29 [label="squared_error = 8.001\nsamples = 15\nvalue = 47.84"] ;
28 -> 29 ;
30 [label="squared_error = 17.538\nsamples = 10\nvalue = 42.03"] ;
28 -> 30 ;
}